<?xml version="1.0"?>
<opencv_storage>
<cascade>
  <stageType>BOOST</stageType>
  <featureType>HAAR</featureType>
  <height>20</height>
  <width>20</width>
  <stageParams>
    <boostType>GAB</boostType>
    <minHitRate>9.9500000476837158e-01</minHitRate>
    <maxFalseAlarm>5.0000000000000000e-01</maxFalseAlarm>
    <weightTrimRate>9.4999999999999996e-01</weightTrimRate>
    <maxDepth>1</maxDepth>
    <maxWeakCount>100</maxWeakCount></stageParams>
  <featureParams>
    <maxCatCount>0</maxCatCount>
    <featSize>1</featSize>
    <mode>BASIC</mode></featureParams>
  <stageNum>16</stageNum>
  <stages>
    <!-- stage 0 -->
    <_>
      <maxWeakCount>5</maxWeakCount>
      <stageThreshold>-1.1355292052030563e-01</stageThreshold>
      <weakClassifiers>
        <_>
          <internalNodes>
            0 -1 50 -2.5050174444913864e-02</internalNodes>
          <leafValues>
            -9.3460488319396973e-01 4.9072247743606567e-01</leafValues></_>
        <_>
          <internalNodes>
            0 -1 49 1.5384363010525703e-02</internalNodes>
          <leafValues>
            2.8966486454010010e-01 -9.1125732660293579e-01</leafValues></_>
        <_>
          <internalNodes>
            0 -1 31 -3.8943901658058167e-02</internalNodes>
          <leafValues>
            -9.7768843173980713e-01 1.3262835144996643e-01</leafValues></_>
        <_>
          <internalNodes>
            0 -1 30 3.7143073976039886e-02</internalNodes>
          <leafValues>
            2.5516527891159058e-01 -9.1538202762603760e-01</leafValues></_>
        <_>
          <internalNodes>
            0 -1 52 3.2734401524066925e-02</internalNodes>
          <leafValues>
            1.4359349012374878e-01 -8.8030016422271729e-01</leafValues></_></weakClassifiers></_>
    <!-- stage 1 -->
    <_>
      <maxWeakCount>5</maxWeakCount>
      <stageThreshold>-2.9697695747017860e-02</stageThreshold>
      <weakClassifiers>
        <_>
          <internalNodes>
            0 -1 53 -3.9320856332778931e-02</internalNodes>
          <leafValues>
            -8.2627117633819580e-01 5.3130149841308594e-01</leafValues></_>
        <_>
          <internalNodes>
            0 -1 130 2.1150819957256317e-02</internalNodes>
          <leafValues>
            2.2641609609127045e-01 -9.1207277774810791e-01</leafValues></_>
        <_>
          <internalNodes>
            0 -1 124 -1.8140580505132675e-02</internalNodes>
          <leafValues>
            -9.2703807353973389e-01 2.3344889283180237e-01</leafValues></_>
        <_>
          <internalNodes>
            0 -1 107 1.0586237534880638e-02</internalNodes>
          <leafValues>
            1.5487788617610931e-01 -8.6948955059051514e-01</leafValues></_>
        <_>
          <internalNodes>
            0 -1 33 -2.4926923215389252e-02</internalNodes>
          <leafValues>
            -8.8210016489028931e-01 1.8183061480522156e-01</leafValues></_></weakClassifiers></_>
    <!-- stage 2 -->
    <_>
      <maxWeakCount>7</maxWeakCount>
      <stageThreshold>-5.5080145597457886e-01</stageThreshold>
      <weakClassifiers>
        <_>
          <internalNodes>
            0 -1 24 3.2814163714647293e-02</internalNodes>
          <leafValues>
            4.4644913077354431e-01 -8.9152544736862183e-01</leafValues></_>
        <_>
          <internalNodes>
            0 -1 51 -1.6417380422353745e-02</internalNodes>
          <leafValues>
            -8.9034509658813477e-01 2.3861336708068848e-01</leafValues></_>
        <_>
          <internalNodes>
            0 -1 133 -1.2586638331413269e-02</internalNodes>
          <leafValues>
            6.6053724288940430e-01 -2.9027050733566284e-01</leafValues></_>
        <_>
          <internalNodes>
            0 -1 66 1.9103627651929855e-02</internalNodes>
          <leafValues>
            -2.1850416064262390e-01 7.1418464183807373e-01</leafValues></_>
        <_>
          <internalNodes>
            0 -1 47 -2.1382309496402740e-02</internalNodes>
          <leafValues>
            -9.1656649112701416e-01 2.3468571901321411e-01</leafValues></_>
        <_>
          <internalNodes>
            0 -1 68 1.7782248556613922e-02</internalNodes>
          <leafValues>
            -2.8695413470268250e-01 5.6445401906967163e-01</leafValues></_>
        <_>
          <internalNodes>
            0 -1 77 9.9128717556595802e-03</internalNodes>
          <leafValues>
            -2.6953515410423279e-01 6.5282976627349854e-01</leafValues></_></weakClassifiers></_>
    <!-- stage 3 -->
    <_>
      <maxWeakCount>10</maxWeakCount>
      <stageThreshold>-1.0198919773101807e+00</stageThreshold>
      <weakClassifiers>
        <_>
          <internalNodes>
            0 -1 46 7.2944760322570801e-02</internalNodes>
          <leafValues>
            4.5064377784729004e-01 -7.5667655467987061e-01</leafValues></_>
        <_>
          <internalNodes>
            0 -1 57 -8.9829757809638977e-02</internalNodes>
          <leafValues>
            -8.2342076301574707e-01 1.7441681027412415e-01</leafValues></_>
        <_>
          <internalNodes>
            0 -1 94 -6.7368429154157639e-03</internalNodes>
          <leafValues>
            -8.4274166822433472e-01 1.2777505815029144e-01</leafValues></_>
        <_>
          <internalNodes>
            0 -1 93 5.4945652373135090e-03</internalNodes>
          <leafValues>
            1.4522624015808105e-01 -8.1972295045852661e-01</leafValues></_>
        <_>
          <internalNodes>
            0 -1 1 1.5296187251806259e-02</internalNodes>
          <leafValues>
            -1.9330981373786926e-01 7.1302258968353271e-01</leafValues></_>
        <_>
          <internalNodes>
            0 -1 137 -2.2999543696641922e-02</internalNodes>
          <leafValues>
            6.2601554393768311e-01 -2.3037818074226379e-01</leafValues></_>
        <_>
          <internalNodes>
            0 -1 138 -3.3872649073600769e-02</internalNodes>
          <leafValues>
            7.0912230014801025e-01 -1.8922266364097595e-01</leafValues></_>
        <_>
          <internalNodes>
            0 -1 2 -1.0633379220962524e-02</internalNodes>
          <leafValues>
            6.3465332984924316e-01 -2.7369442582130432e-01</leafValues></_>
        <_>
          <internalNodes>
            0 -1 79 -4.4583901762962341e-03</internalNodes>
          <leafValues>
            -9.2372852563858032e-01 1.9479544460773468e-01</leafValues></_>
        <_>
          <internalNodes>
            0 -1 133 1.2496601790189743e-02</internalNodes>
          <leafValues>
            -2.5562742352485657e-01 6.2453323602676392e-01</leafValues></_></weakClassifiers></_>
    <!-- stage 4 -->
    <_>
      <maxWeakCount>8</maxWeakCount>
      <stageThreshold>-5.0824266672134399e-01</stageThreshold>
      <weakClassifiers>
        <_>
          <internalNodes>
            0 -1 80 8.3890464156866074e-03</internalNodes>
          <leafValues>
            4.4039863348007202e-01 -8.5567009449005127e-01</leafValues></_>
        <_>
          <internalNodes>
            0 -1 38 -3.5530082881450653e-02</internalNodes>
          <leafValues>
            -8.8563340902328491e-01 2.0642888545989990e-01</leafValues></_>
        <_>
          <internalNodes>
            0 -1 116 1.4128904789686203e-02</internalNodes>
          <leafValues>
            1.1084585636854172e-01 -8.0551314353942871e-01</leafValues></_>
        <_>
          <internalNodes>
            0 -1 66 -2.0774327218532562e-02</internalNodes>
          <leafValues>
            6.8052923679351807e-01 -2.0359969139099121e-01</leafValues></_>
        <_>
          <internalNodes>
            0 -1 99 1.3349379412829876e-02</internalNodes>
          <leafValues>
            -2.1495802700519562e-01 7.0080924034118652e-01</leafValues></_>
        <_>
          <internalNodes>
            0 -1 97 7.8292712569236755e-03</internalNodes>
          <leafValues>
            1.6671742498874664e-01 -8.6028778553009033e-01</leafValues></_>
        <_>
          <internalNodes>
            0 -1 45 -8.5324179381132126e-03</internalNodes>
          <leafValues>
            5.9240388870239258e-01 -2.1772336959838867e-01</leafValues></_>
        <_>
          <internalNodes>
            0 -1 3 1.5252558514475822e-02</internalNodes>
          <leafValues>
            -3.1041094660758972e-01 6.0421824455261230e-01</leafValues></_></weakClassifiers></_>
    <!-- stage 5 -->
    <_>
      <maxWeakCount>10</maxWeakCount>
      <stageThreshold>-6.4237630367279053e-01</stageThreshold>
      <weakClassifiers>
        <_>
          <internalNodes>
            0 -1 71 -2.7957947924733162e-02</internalNodes>
          <leafValues>
            -7.5396823883056641e-01 4.1163140535354614e-01</leafValues></_>
        <_>
          <internalNodes>
            0 -1 131 1.6984136775135994e-02</internalNodes>
          <leafValues>
            -1.6642458736896515e-01 6.0445576906204224e-01</leafValues></_>
        <_>
          <internalNodes>
            0 -1 131 -1.4243787154555321e-02</internalNodes>
          <leafValues>
            5.7557064294815063e-01 -3.8244572281837463e-01</leafValues></_>
        <_>
          <internalNodes>
            0 -1 4 -1.6464564949274063e-02</internalNodes>
          <leafValues>
            6.6668808460235596e-01 -1.5265306830406189e-01</leafValues></_>
        <_>
          <internalNodes>
            0 -1 73 1.9391477108001709e-02</internalNodes>
          <leafValues>
            -1.5141308307647705e-01 6.9412064552307129e-01</leafValues></_>
        <_>
          <internalNodes>
            0 -1 62 1.0435475036501884e-02</internalNodes>
          <leafValues>
            1.6316406428813934e-01 -8.4422415494918823e-01</leafValues></_>
        <_>
          <internalNodes>
            0 -1 15 1.9270371645689011e-02</internalNodes>
          <leafValues>
            -2.2177049517631531e-01 6.0442852973937988e-01</leafValues></_>
        <_>
          <internalNodes>
            0 -1 16 2.6951190084218979e-02</internalNodes>
          <leafValues>
            -2.4977414309978485e-01 7.5049763917922974e-01</leafValues></_>
        <_>
          <internalNodes>
            0 -1 88 1.4575943350791931e-02</internalNodes>
          <leafValues>
            -1.7560961842536926e-01 6.7182755470275879e-01</leafValues></_>
        <_>
          <internalNodes>
            0 -1 72 -1.7346570268273354e-02</internalNodes>
          <leafValues>
            7.9788345098495483e-01 -1.4170290529727936e-01</leafValues></_></weakClassifiers></_>
    <!-- stage 6 -->
    <_>
      <maxWeakCount>11</maxWeakCount>
      <stageThreshold>-7.1243476867675781e-01</stageThreshold>
      <weakClassifiers>
        <_>
          <internalNodes>
            0 -1 60 -1.9067991524934769e-02</internalNodes>
          <leafValues>
            -8.0821919441223145e-01 4.3558281660079956e-01</leafValues></_>
        <_>
          <internalNodes>
            0 -1 119 -2.2806894034147263e-02</internalNodes>
          <leafValues>
            5.6382113695144653e-01 -1.6084352135658264e-01</leafValues></_>
        <_>
          <internalNodes>
            0 -1 69 2.5676578283309937e-02</internalNodes>
          <leafValues>
            -3.4647116065025330e-01 5.1151049137115479e-01</leafValues></_>
        <_>
          <internalNodes>
            0 -1 89 -1.6033936291933060e-02</internalNodes>
          <leafValues>
            7.2625410556793213e-01 -1.6410702466964722e-01</leafValues></_>
        <_>
          <internalNodes>
            0 -1 135 -1.5810769051313400e-02</internalNodes>
          <leafValues>
            7.1690028905868530e-01 -1.6063854098320007e-01</leafValues></_>
        <_>
          <internalNodes>
            0 -1 61 -1.4728311449289322e-02</internalNodes>
          <leafValues>
            4.9358439445495605e-01 -2.5589513778686523e-01</leafValues></_>
        <_>
          <internalNodes>
            0 -1 95 2.3579156026244164e-02</internalNodes>
          <leafValues>
            -3.0664366483688354e-01 5.0808835029602051e-01</leafValues></_>
        <_>
          <internalNodes>
            0 -1 141 -2.0017415285110474e-02</internalNodes>
          <leafValues>
            6.9839060306549072e-01 -1.5261039137840271e-01</leafValues></_>
        <_>
          <internalNodes>
            0 -1 37 -1.5175236389040947e-02</internalNodes>
          <leafValues>
            -8.4206300973892212e-01 1.8027932941913605e-01</leafValues></_>
        <_>
          <internalNodes>
            0 -1 143 -1.2605009600520134e-02</internalNodes>
          <leafValues>
            5.9136748313903809e-01 -2.5712993741035461e-01</leafValues></_>
        <_>
          <internalNodes>
            0 -1 65 -5.3021125495433807e-02</internalNodes>
          <leafValues>
            7.1820092201232910e-01 -1.7432893812656403e-01</leafValues></_></weakClassifiers></_>
    <!-- stage 7 -->
    <_>
      <maxWeakCount>12</maxWeakCount>
      <stageThreshold>-5.7894510030746460e-01</stageThreshold>
      <weakClassifiers>
        <_>
          <internalNodes>
            0 -1 59 2.4136375635862350e-02</internalNodes>
          <leafValues>
            4.4160866737365723e-01 -7.7070063352584839e-01</leafValues></_>
        <_>
          <internalNodes>
            0 -1 140 3.1010922044515610e-02</internalNodes>
          <leafValues>
            -1.4902776479721069e-01 6.9422543048858643e-01</leafValues></_>
        <_>
          <internalNodes>
            0 -1 129 -4.1647117584943771e-02</internalNodes>
          <leafValues>
            5.3246182203292847e-01 -2.3604837059974670e-01</leafValues></_>
        <_>
          <internalNodes>
            0 -1 101 -2.0082951523363590e-03</internalNodes>
          <leafValues>
            -9.1648364067077637e-01 1.6306205093860626e-01</leafValues></_>
        <_>
          <internalNodes>
            0 -1 101 1.7611335497349501e-03</internalNodes>
          <leafValues>
            8.3334468305110931e-02 -8.7066149711608887e-01</leafValues></_>
        <_>
          <internalNodes>
            0 -1 75 -2.6995625346899033e-02</internalNodes>
          <leafValues>
            6.1951363086700439e-01 -2.0474801957607269e-01</leafValues></_>
        <_>
          <internalNodes>
            0 -1 96 -1.2764720246195793e-02</internalNodes>
          <leafValues>
            4.9886715412139893e-01 -2.9731792211532593e-01</leafValues></_>
        <_>
          <internalNodes>
            0 -1 91 5.8581028133630753e-02</internalNodes>
          <leafValues>
            2.0866076648235321e-01 -8.5085797309875488e-01</leafValues></_>
        <_>
          <internalNodes>
            0 -1 126 1.4097769744694233e-02</internalNodes>
          <leafValues>
            -2.7927264571189880e-01 6.6645675897598267e-01</leafValues></_>
        <_>
          <internalNodes>
            0 -1 13 5.8933813124895096e-02</internalNodes>
          <leafValues>
            -1.9728916883468628e-01 7.1114689111709595e-01</leafValues></_>
        <_>
          <internalNodes>
            0 -1 118 1.2622565031051636e-02</internalNodes>
          <leafValues>
            -1.8171618878841400e-01 6.3686501979827881e-01</leafValues></_>
        <_>
          <internalNodes>
            0 -1 82 -9.2080403119325638e-03</internalNodes>
          <leafValues>
            5.6859940290451050e-01 -2.0937441289424896e-01</leafValues></_></weakClassifiers></_>
    <!-- stage 8 -->
    <_>
      <maxWeakCount>11</maxWeakCount>
      <stageThreshold>-6.5499961376190186e-01</stageThreshold>
      <weakClassifiers>
        <_>
          <internalNodes>
            0 -1 34 1.0539231449365616e-01</internalNodes>
          <leafValues>
            4.2606037855148315e-01 -7.5971728563308716e-01</leafValues></_>
        <_>
          <internalNodes>
            0 -1 103 -1.7315715551376343e-02</internalNodes>
          <leafValues>
            -8.4420573711395264e-01 2.0575009286403656e-01</leafValues></_>
        <_>
          <internalNodes>
            0 -1 8 -3.2321173697710037e-02</internalNodes>
          <leafValues>
            6.1350619792938232e-01 -2.4091933667659760e-01</leafValues></_>
        <_>
          <internalNodes>
            0 -1 9 3.3599279820919037e-02</internalNodes>
          <leafValues>
            -1.7433604598045349e-01 7.2867429256439209e-01</leafValues></_>
        <_>
          <internalNodes>
            0 -1 23 -4.3862719088792801e-02</internalNodes>
          <leafValues>
            -7.5503587722778320e-01 1.8323636054992676e-01</leafValues></_>
        <_>
          <internalNodes>
            0 -1 63 2.1902214735746384e-02</internalNodes>
          <leafValues>
            1.3924536108970642e-01 -8.1983745098114014e-01</leafValues></_>
        <_>
          <internalNodes>
            0 -1 126 -1.5758154913783073e-02</internalNodes>
          <leafValues>
            6.4583456516265869e-01 -1.7213653028011322e-01</leafValues></_>
        <_>
          <internalNodes>
            0 -1 18 -1.4462073333561420e-02</internalNodes>
          <leafValues>
            7.0872288942337036e-01 -1.9296178221702576e-01</leafValues></_>
        <_>
          <internalNodes>
            0 -1 19 8.7801404297351837e-03</internalNodes>
          <leafValues>
            -2.3405292630195618e-01 5.6289362907409668e-01</leafValues></_>
        <_>
          <internalNodes>
            0 -1 39 1.2528887018561363e-02</internalNodes>
          <leafValues>
            -1.5173584222793579e-01 7.0732223987579346e-01</leafValues></_>
        <_>
          <internalNodes>
            0 -1 87 -9.6402447670698166e-03</internalNodes>
          <leafValues>
            6.2459790706634521e-01 -1.9014008343219757e-01</leafValues></_></weakClassifiers></_>
    <!-- stage 9 -->
    <_>
      <maxWeakCount>14</maxWeakCount>
      <stageThreshold>-6.3113611936569214e-01</stageThreshold>
      <weakClassifiers>
        <_>
          <internalNodes>
            0 -1 102 1.0754286311566830e-02</internalNodes>
          <leafValues>
            4.2475172877311707e-01 -7.5177305936813354e-01</leafValues></_>
        <_>
          <internalNodes>
            0 -1 111 2.3866523057222366e-02</internalNodes>
          <leafValues>
            -1.5302066504955292e-01 6.4214837551116943e-01</leafValues></_>
        <_>
          <internalNodes>
            0 -1 100 -5.1058796234428883e-03</internalNodes>
          <leafValues>
            5.3594923019409180e-01 -2.8077861666679382e-01</leafValues></_>
        <_>
          <internalNodes>
            0 -1 48 -1.4981977641582489e-02</internalNodes>
          <leafValues>
            -7.8828912973403931e-01 1.5546157956123352e-01</leafValues></_>
        <_>
          <internalNodes>
            0 -1 11 1.9251890480518341e-02</internalNodes>
          <leafValues>
            -2.1444602310657501e-01 5.7954657077789307e-01</leafValues></_>
        <_>
          <internalNodes>
            0 -1 22 -3.0385076999664307e-02</internalNodes>
          <leafValues>
            6.1727935075759888e-01 -2.9191571474075317e-01</leafValues></_>
        <_>
          <internalNodes>
            0 -1 122 2.6498634368181229e-02</internalNodes>
          <leafValues>
            2.1629992127418518e-01 -7.4954903125762939e-01</leafValues></_>
        <_>
          <internalNodes>
            0 -1 27 -1.7325632274150848e-02</internalNodes>
          <leafValues>
            7.4381488561630249e-01 -1.7968757450580597e-01</leafValues></_>
        <_>
          <internalNodes>
            0 -1 135 1.5171142295002937e-02</internalNodes>
          <leafValues>
            -1.4029677212238312e-01 6.8454527854919434e-01</leafValues></_>
        <_>
          <internalNodes>
            0 -1 64 -3.5883460193872452e-02</internalNodes>
          <leafValues>
            7.3265057802200317e-01 -1.5209525823593140e-01</leafValues></_>
        <_>
          <internalNodes>
            0 -1 44 1.1265823245048523e-01</internalNodes>
          <leafValues>
            -1.4322039484977722e-01 7.0710086822509766e-01</leafValues></_>
        <_>
          <internalNodes>
            0 -1 41 1.5140574425458908e-02</internalNodes>
          <leafValues>
            -1.4745466411113739e-01 7.1137607097625732e-01</leafValues></_>
        <_>
          <internalNodes>
            0 -1 29 1.4003895223140717e-02</internalNodes>
          <leafValues>
            -1.4940881729125977e-01 7.0814466476440430e-01</leafValues></_>
        <_>
          <internalNodes>
            0 -1 36 5.0154915079474449e-03</internalNodes>
          <leafValues>
            -2.6219838857650757e-01 5.3313231468200684e-01</leafValues></_></weakClassifiers></_>
    <!-- stage 10 -->
    <_>
      <maxWeakCount>11</maxWeakCount>
      <stageThreshold>-6.2027573585510254e-01</stageThreshold>
      <weakClassifiers>
        <_>
          <internalNodes>
            0 -1 67 -4.1393604129552841e-02</internalNodes>
          <leafValues>
            -9.1549295186996460e-01 4.0751767158508301e-01</leafValues></_>
        <_>
          <internalNodes>
            0 -1 113 -2.3690287023782730e-02</internalNodes>
          <leafValues>
            -8.1902718544006348e-01 1.7913475632667542e-01</leafValues></_>
        <_>
          <internalNodes>
            0 -1 43 -3.2624557614326477e-02</internalNodes>
          <leafValues>
            6.4076036214828491e-01 -1.9690129160881042e-01</leafValues></_>
        <_>
          <internalNodes>
            0 -1 142 1.7985861748456955e-02</internalNodes>
          <leafValues>
            -2.2276838123798370e-01 6.9729721546173096e-01</leafValues></_>
        <_>
          <internalNodes>
            0 -1 114 8.5476599633693695e-03</internalNodes>
          <leafValues>
            2.0546136796474457e-01 -6.5881097316741943e-01</leafValues></_>
        <_>
          <internalNodes>
            0 -1 83 1.9291248172521591e-02</internalNodes>
          <leafValues>
            -2.3330524563789368e-01 5.2213627099990845e-01</leafValues></_>
        <_>
          <internalNodes>
            0 -1 105 1.8582580611109734e-02</internalNodes>
          <leafValues>
            -3.5829052329063416e-01 5.6965482234954834e-01</leafValues></_>
        <_>
          <internalNodes>
            0 -1 131 1.3385167345404625e-02</internalNodes>
          <leafValues>
            -2.9158723354339600e-01 5.7151567935943604e-01</leafValues></_>
        <_>
          <internalNodes>
            0 -1 20 -9.6024781465530396e-02</internalNodes>
          <leafValues>
            -6.7985546588897705e-01 2.0302858948707581e-01</leafValues></_>
        <_>
          <internalNodes>
            0 -1 93 -5.2284933626651764e-03</internalNodes>
          <leafValues>
            -8.5042160749435425e-01 1.4192819595336914e-01</leafValues></_>
        <_>
          <internalNodes>
            0 -1 76 2.0790599286556244e-02</internalNodes>
          <leafValues>
            -1.9780421257019043e-01 7.1288377046585083e-01</leafValues></_></weakClassifiers></_>
    <!-- stage 11 -->
    <_>
      <maxWeakCount>11</maxWeakCount>
      <stageThreshold>-5.5374056100845337e-01</stageThreshold>
      <weakClassifiers>
        <_>
          <internalNodes>
            0 -1 123 7.1116397157311440e-03</internalNodes>
          <leafValues>
            3.9940828084945679e-01 -9.1836732625961304e-01</leafValues></_>
        <_>
          <internalNodes>
            0 -1 142 -1.9520815461874008e-02</internalNodes>
          <leafValues>
            6.3397610187530518e-01 -1.3378416001796722e-01</leafValues></_>
        <_>
          <internalNodes>
            0 -1 127 4.4720821082592010e-02</internalNodes>
          <leafValues>
            -2.2627519071102142e-01 6.4337033033370972e-01</leafValues></_>
        <_>
          <internalNodes>
            0 -1 42 -9.1552995145320892e-03</internalNodes>
          <leafValues>
            6.9759112596511841e-01 -1.4599151909351349e-01</leafValues></_>
        <_>
          <internalNodes>
            0 -1 6 1.2664001435041428e-02</internalNodes>
          <leafValues>
            -2.4138920009136200e-01 6.2902140617370605e-01</leafValues></_>
        <_>
          <internalNodes>
            0 -1 121 -5.1897400990128517e-03</internalNodes>
          <leafValues>
            -6.6965925693511963e-01 2.2011625766754150e-01</leafValues></_>
        <_>
          <internalNodes>
            0 -1 136 2.1430272608995438e-03</internalNodes>
          <leafValues>
            -2.5846987962722778e-01 5.3975975513458252e-01</leafValues></_>
        <_>
          <internalNodes>
            0 -1 136 -2.1048407070338726e-03</internalNodes>
          <leafValues>
            6.0000991821289062e-01 -1.6446074843406677e-01</leafValues></_>
        <_>
          <internalNodes>
            0 -1 54 -2.0077554509043694e-02</internalNodes>
          <leafValues>
            7.0969653129577637e-01 -1.4840456843376160e-01</leafValues></_>
        <_>
          <internalNodes>
            0 -1 115 1.7840191721916199e-02</internalNodes>
          <leafValues>
            -2.7029925584793091e-01 5.0330549478530884e-01</leafValues></_>
        <_>
          <internalNodes>
            0 -1 117 4.8181521706283092e-03</internalNodes>
          <leafValues>
            -2.6624941825866699e-01 5.5893224477767944e-01</leafValues></_></weakClassifiers></_>
    <!-- stage 12 -->
    <_>
      <maxWeakCount>14</maxWeakCount>
      <stageThreshold>-9.7167390584945679e-01</stageThreshold>
      <weakClassifiers>
        <_>
          <internalNodes>
            0 -1 106 2.2095975000411272e-03</internalNodes>
          <leafValues>
            3.6889252066612244e-01 -8.4426230192184448e-01</leafValues></_>
        <_>
          <internalNodes>
            0 -1 10 6.9860935211181641e-02</internalNodes>
          <leafValues>
            1.7507074773311615e-01 -8.4627240896224976e-01</leafValues></_>
        <_>
          <internalNodes>
            0 -1 7 2.1864630281925201e-02</internalNodes>
          <leafValues>
            -2.2431783378124237e-01 6.6796088218688965e-01</leafValues></_>
        <_>
          <internalNodes>
            0 -1 55 -1.2867669574916363e-02</internalNodes>
          <leafValues>
            6.5597236156463623e-01 -2.3788559436798096e-01</leafValues></_>
        <_>
          <internalNodes>
            0 -1 21 -7.9888049513101578e-03</internalNodes>
          <leafValues>
            6.9406294822692871e-01 -1.5339192748069763e-01</leafValues></_>
        <_>
          <internalNodes>
            0 -1 17 -3.3995211124420166e-02</internalNodes>
          <leafValues>
            8.7917524576187134e-01 -1.4173559844493866e-01</leafValues></_>
        <_>
          <internalNodes>
            0 -1 92 -2.7056511491537094e-02</internalNodes>
          <leafValues>
            5.2196162939071655e-01 -2.3170591890811920e-01</leafValues></_>
        <_>
          <internalNodes>
            0 -1 112 3.8919419050216675e-02</internalNodes>
          <leafValues>
            -2.5131049752235413e-01 6.1667215824127197e-01</leafValues></_>
        <_>
          <internalNodes>
            0 -1 85 8.9839044958353043e-03</internalNodes>
          <leafValues>
            -2.2215946018695831e-01 5.3459239006042480e-01</leafValues></_>
        <_>
          <internalNodes>
            0 -1 32 -2.3874687030911446e-02</internalNodes>
          <leafValues>
            -7.5750094652175903e-01 1.7575480043888092e-01</leafValues></_>
        <_>
          <internalNodes>
            0 -1 70 -4.9065332859754562e-03</internalNodes>
          <leafValues>
            -8.7952977418899536e-01 1.1048953980207443e-01</leafValues></_>
        <_>
          <internalNodes>
            0 -1 86 -8.4878895431756973e-03</internalNodes>
          <leafValues>
            -8.3554321527481079e-01 1.0651390999555588e-01</leafValues></_>
        <_>
          <internalNodes>
            0 -1 56 -9.8314002156257629e-02</internalNodes>
          <leafValues>
            8.3833694458007812e-01 -1.7832124233245850e-01</leafValues></_>
        <_>
          <internalNodes>
            0 -1 5 1.0129713453352451e-02</internalNodes>
          <leafValues>
            -2.2659030556678772e-01 5.8442175388336182e-01</leafValues></_></weakClassifiers></_>
    <!-- stage 13 -->
    <_>
      <maxWeakCount>11</maxWeakCount>
      <stageThreshold>-5.8479881286621094e-01</stageThreshold>
      <weakClassifiers>
        <_>
          <internalNodes>
            0 -1 14 2.0951066911220551e-01</internalNodes>
          <leafValues>
            4.4449606537818909e-01 -4.6983546018600464e-01</leafValues></_>
        <_>
          <internalNodes>
            0 -1 109 4.4436492025852203e-02</internalNodes>
          <leafValues>
            -2.1686725318431854e-01 6.6749066114425659e-01</leafValues></_>
        <_>
          <internalNodes>
            0 -1 110 -6.8807266652584076e-03</internalNodes>
          <leafValues>
            6.2340533733367920e-01 -3.0275815725326538e-01</leafValues></_>
        <_>
          <internalNodes>
            0 -1 104 8.6316689848899841e-03</internalNodes>
          <leafValues>
            2.1204003691673279e-01 -7.7921813726425171e-01</leafValues></_>
        <_>
          <internalNodes>
            0 -1 74 1.1327488347887993e-02</internalNodes>
          <leafValues>
            -2.8060558438301086e-01 5.5549377202987671e-01</leafValues></_>
        <_>
          <internalNodes>
            0 -1 28 5.7603642344474792e-03</internalNodes>
          <leafValues>
            -2.5463941693305969e-01 6.6082322597503662e-01</leafValues></_>
        <_>
          <internalNodes>
            0 -1 128 -2.3613419383764267e-02</internalNodes>
          <leafValues>
            6.6940146684646606e-01 -1.8636929988861084e-01</leafValues></_>
        <_>
          <internalNodes>
            0 -1 78 -3.4439302980899811e-02</internalNodes>
          <leafValues>
            5.6594568490982056e-01 -3.3311879634857178e-01</leafValues></_>
        <_>
          <internalNodes>
            0 -1 139 5.7898797094821930e-03</internalNodes>
          <leafValues>
            2.8562608361244202e-01 -7.6393622159957886e-01</leafValues></_>
        <_>
          <internalNodes>
            0 -1 58 2.5844227056950331e-03</internalNodes>
          <leafValues>
            -3.2989373803138733e-01 5.5806559324264526e-01</leafValues></_>
        <_>
          <internalNodes>
            0 -1 40 2.0831292495131493e-03</internalNodes>
          <leafValues>
            -2.5156769156455994e-01 5.9288382530212402e-01</leafValues></_></weakClassifiers></_>
    <!-- stage 14 -->
    <_>
      <maxWeakCount>9</maxWeakCount>
      <stageThreshold>-4.4812992215156555e-01</stageThreshold>
      <weakClassifiers>
        <_>
          <internalNodes>
            0 -1 120 4.3391644954681396e-02</internalNodes>
          <leafValues>
            4.5709124207496643e-01 -6.4197528362274170e-01</leafValues></_>
        <_>
          <internalNodes>
            0 -1 90 3.2575826626271009e-03</internalNodes>
          <leafValues>
            2.1312330663204193e-01 -8.7992292642593384e-01</leafValues></_>
        <_>
          <internalNodes>
            0 -1 0 -6.9896973669528961e-02</internalNodes>
          <leafValues>
            8.2540971040725708e-01 -2.4538417160511017e-01</leafValues></_>
        <_>
          <internalNodes>
            0 -1 134 -4.0636997669935226e-02</internalNodes>
          <leafValues>
            8.4208840131759644e-01 -2.1352031826972961e-01</leafValues></_>
        <_>
          <internalNodes>
            0 -1 26 3.1081747263669968e-02</internalNodes>
          <leafValues>
            -2.5363484025001526e-01 7.4928641319274902e-01</leafValues></_>
        <_>
          <internalNodes>
            0 -1 12 -1.4984644949436188e-02</internalNodes>
          <leafValues>
            9.5412528514862061e-01 -1.8404513597488403e-01</leafValues></_>
        <_>
          <internalNodes>
            0 -1 25 1.8016768619418144e-02</internalNodes>
          <leafValues>
            -1.5237410366535187e-01 1.</leafValues></_>
        <_>
          <internalNodes>
            0 -1 84 -5.9580015949904919e-03</internalNodes>
          <leafValues>
            -9.2233318090438843e-01 2.6659739017486572e-01</leafValues></_>
        <_>
          <internalNodes>
            0 -1 108 -8.6016543209552765e-03</internalNodes>
          <leafValues>
            9.4348925352096558e-01 -2.3983803391456604e-01</leafValues></_></weakClassifiers></_>
    <!-- stage 15 -->
    <_>
      <maxWeakCount>5</maxWeakCount>
      <stageThreshold>-4.7598662972450256e-01</stageThreshold>
      <weakClassifiers>
        <_>
          <internalNodes>
            0 -1 125 -4.2909209150820971e-04</internalNodes>
          <leafValues>
            -5.3649169206619263e-01 5.8311623334884644e-01</leafValues></_>
        <_>
          <internalNodes>
            0 -1 132 3.2949645072221756e-02</internalNodes>
          <leafValues>
            3.0333027243614197e-01 -9.6358549594879150e-01</leafValues></_>
        <_>
          <internalNodes>
            0 -1 81 2.7891257777810097e-03</internalNodes>
          <leafValues>
            -3.2678800821304321e-01 1.</leafValues></_>
        <_>
          <internalNodes>
            0 -1 98 -2.1414463408291340e-03</internalNodes>
          <leafValues>
            1. -2.4160684645175934e-01</leafValues></_>
        <_>
          <internalNodes>
            0 -1 35 -4.2061273008584976e-02</internalNodes>
          <leafValues>
            -7.9403823614120483e-01 4.4113966822624207e-01</leafValues></_></weakClassifiers></_></stages>
  <features>
    <_>
      <rects>
        <_>
          0 1 15 7 -1.</_>
        <_>
          5 1 5 7 3.</_></rects>
      <tilted>0</tilted></_>
    <_>
      <rects>
        <_>
          0 4 2 12 -1.</_>
        <_>
          0 4 1 6 2.</_>
        <_>
          1 10 1 6 2.</_></rects>
      <tilted>0</tilted></_>
    <_>
      <rects>
        <_>
          0 4 2 14 -1.</_>
        <_>
          0 4 1 7 2.</_>
        <_>
          1 11 1 7 2.</_></rects>
      <tilted>0</tilted></_>
    <_>
      <rects>
        <_>
          0 4 2 13 -1.</_>
        <_>
          1 4 1 13 2.</_></rects>
      <tilted>0</tilted></_>
    <_>
      <rects>
        <_>
          0 4 2 14 -1.</_>
        <_>
          1 4 1 14 2.</_></rects>
      <tilted>0</tilted></_>
    <_>
      <rects>
        <_>
          0 5 2 10 -1.</_>
        <_>
          0 5 1 5 2.</_>
        <_>
          1 10 1 5 2.</_></rects>
      <tilted>0</tilted></_>
    <_>
      <rects>
        <_>
          0 16 12 2 -1.</_>
        <_>
          0 16 6 1 2.</_>
        <_>
          6 17 6 1 2.</_></rects>
      <tilted>0</tilted></_>
    <_>
      <rects>
        <_>
          1 4 4 10 -1.</_>
        <_>
          1 4 2 5 2.</_>
        <_>
          3 9 2 5 2.</_></rects>
      <tilted>0</tilted></_>
    <_>
      <rects>
        <_>
          1 5 4 12 -1.</_>
        <_>
          1 5 2 6 2.</_>
        <_>
          3 11 2 6 2.</_></rects>
      <tilted>0</tilted></_>
    <_>
      <rects>
        <_>
          1 7 4 10 -1.</_>
        <_>
          1 7 2 5 2.</_>
        <_>
          3 12 2 5 2.</_></rects>
      <tilted>0</tilted></_>
    <_>
      <rects>
        <_>
          1 10 18 4 -1.</_>
        <_>
          7 10 6 4 3.</_></rects>
      <tilted>0</tilted></_>
    <_>
      <rects>
        <_>
          1 12 4 5 -1.</_>
        <_>
          3 12 2 5 2.</_></rects>
      <tilted>0</tilted></_>
    <_>
      <rects>
        <_>
          1 16 9 1 -1.</_>
        <_>
          4 16 3 1 3.</_></rects>
      <tilted>0</tilted></_>
    <_>
      <rects>
        <_>
          2 1 12 8 -1.</_>
        <_>
          2 1 6 4 2.</_>
        <_>
          8 5 6 4 2.</_></rects>
      <tilted>0</tilted></_>
    <_>
      <rects>
        <_>
          2 1 16 18 -1.</_>
        <_>
          2 7 16 6 3.</_></rects>
      <tilted>0</tilted></_>
    <_>
      <rects>
        <_>
          2 2 4 5 -1.</_>
        <_>
          4 2 2 5 2.</_></rects>
      <tilted>0</tilted></_>
    <_>
      <rects>
        <_>
          2 2 4 10 -1.</_>
        <_>
          2 2 2 5 2.</_>
        <_>
          4 7 2 5 2.</_></rects>
      <tilted>0</tilted></_>
    <_>
      <rects>
        <_>
          2 3 1 15 -1.</_>
        <_>
          2 8 1 5 3.</_></rects>
      <tilted>0</tilted></_>
    <_>
      <rects>
        <_>
          2 3 4 4 -1.</_>
        <_>
          2 3 2 2 2.</_>
        <_>
          4 5 2 2 2.</_></rects>
      <tilted>0</tilted></_>
    <_>
      <rects>
        <_>
          2 4 2 8 -1.</_>
        <_>
          2 4 1 4 2.</_>
        <_>
          3 8 1 4 2.</_></rects>
      <tilted>0</tilted></_>
    <_>
      <rects>
        <_>
          2 4 15 15 -1.</_>
        <_>
          2 9 15 5 3.</_></rects>
      <tilted>0</tilted></_>
    <_>
      <rects>
        <_>
          2 5 2 6 -1.</_>
        <_>
          2 5 1 3 2.</_>
        <_>
          3 8 1 3 2.</_></rects>
      <tilted>0</tilted></_>
    <_>
      <rects>
        <_>
          2 6 4 14 -1.</_>
        <_>
          2 6 2 7 2.</_>
        <_>
          4 13 2 7 2.</_></rects>
      <tilted>0</tilted></_>
    <_>
      <rects>
        <_>
          2 6 16 9 -1.</_>
        <_>
          10 6 8 9 2.</_></rects>
      <tilted>0</tilted></_>
    <_>
      <rects>
        <_>
          2 7 12 5 -1.</_>
        <_>
          6 7 4 5 3.</_></rects>
      <tilted>0</tilted></_>
    <_>
      <rects>
        <_>
          2 14 4 4 -1.</_>
        <_>
          2 14 2 2 2.</_>
        <_>
          4 16 2 2 2.</_></rects>
      <tilted>0</tilted></_>
    <_>
      <rects>
        <_>
          2 15 12 4 -1.</_>
        <_>
          6 15 4 4 3.</_></rects>
      <tilted>0</tilted></_>
    <_>
      <rects>
        <_>
          3 2 4 4 -1.</_>
        <_>
          3 2 2 2 2.</_>
        <_>
          5 4 2 2 2.</_></rects>
      <tilted>0</tilted></_>
    <_>
      <rects>
        <_>
          3 3 4 2 -1.</_>
        <_>
          3 3 2 1 2.</_>
        <_>
          5 4 2 1 2.</_></rects>
      <tilted>0</tilted></_>
    <_>
      <rects>
        <_>
          3 3 4 4 -1.</_>
        <_>
          3 3 2 2 2.</_>
        <_>
          5 5 2 2 2.</_></rects>
      <tilted>0</tilted></_>
    <_>
      <rects>
        <_>
          3 4 14 6 -1.</_>
        <_>
          10 4 7 6 2.</_></rects>
      <tilted>0</tilted></_>
    <_>
      <rects>
        <_>
          3 5 14 6 -1.</_>
        <_>
          10 5 7 6 2.</_></rects>
      <tilted>0</tilted></_>
    <_>
      <rects>
        <_>
          3 5 10 6 -1.</_>
        <_>
          3 8 10 3 2.</_></rects>
      <tilted>0</tilted></_>
    <_>
      <rects>
        <_>
          3 6 11 6 -1.</_>
        <_>
          3 9 11 3 2.</_></rects>
      <tilted>0</tilted></_>
    <_>
      <rects>
        <_>
          3 6 15 12 -1.</_>
        <_>
          3 10 15 4 3.</_></rects>
      <tilted>0</tilted></_>
    <_>
      <rects>
        <_>
          3 7 13 9 -1.</_>
        <_>
          3 10 13 3 3.</_></rects>
      <tilted>0</tilted></_>
    <_>
      <rects>
        <_>
          3 8 2 8 -1.</_>
        <_>
          3 8 1 4 2.</_>
        <_>
          4 12 1 4 2.</_></rects>
      <tilted>0</tilted></_>
    <_>
      <rects>
        <_>
          3 9 12 2 -1.</_>
        <_>
          7 9 4 2 3.</_></rects>
      <tilted>0</tilted></_>
    <_>
      <rects>
        <_>
          3 11 14 5 -1.</_>
        <_>
          10 11 7 5 2.</_></rects>
      <tilted>0</tilted></_>
    <_>
      <rects>
        <_>
          3 13 4 4 -1.</_>
        <_>
          3 13 2 2 2.</_>
        <_>
          5 15 2 2 2.</_></rects>
      <tilted>0</tilted></_>
    <_>
      <rects>
        <_>
          3 14 2 3 -1.</_>
        <_>
          4 14 1 3 2.</_></rects>
      <tilted>0</tilted></_>
    <_>
      <rects>
        <_>
          3 14 4 4 -1.</_>
        <_>
          3 14 2 2 2.</_>
        <_>
          5 16 2 2 2.</_></rects>
      <tilted>0</tilted></_>
    <_>
      <rects>
        <_>
          3 16 6 2 -1.</_>
        <_>
          3 16 3 1 2.</_>
        <_>
          6 17 3 1 2.</_></rects>
      <tilted>0</tilted></_>
    <_>
      <rects>
        <_>
          3 17 12 2 -1.</_>
        <_>
          7 17 4 2 3.</_></rects>
      <tilted>0</tilted></_>
    <_>
      <rects>
        <_>
          4 1 12 18 -1.</_>
        <_>
          4 1 6 9 2.</_>
        <_>
          10 10 6 9 2.</_></rects>
      <tilted>0</tilted></_>
    <_>
      <rects>
        <_>
          4 3 4 4 -1.</_>
        <_>
          4 3 2 2 2.</_>
        <_>
          6 5 2 2 2.</_></rects>
      <tilted>0</tilted></_>
    <_>
      <rects>
        <_>
          4 3 12 14 -1.</_>
        <_>
          4 10 12 7 2.</_></rects>
      <tilted>0</tilted></_>
    <_>
      <rects>
        <_>
          4 4 3 12 -1.</_>
        <_>
          4 10 3 6 2.</_></rects>
      <tilted>0</tilted></_>
    <_>
      <rects>
        <_>
          4 4 5 6 -1.</_>
        <_>
          4 6 5 2 3.</_></rects>
      <tilted>0</tilted></_>
    <_>
      <rects>
        <_>
          4 5 4 10 -1.</_>
        <_>
          4 10 4 5 2.</_></rects>
      <tilted>0</tilted></_>
    <_>
      <rects>
        <_>
          4 5 5 10 -1.</_>
        <_>
          4 10 5 5 2.</_></rects>
      <tilted>0</tilted></_>
    <_>
      <rects>
        <_>
          4 7 9 3 -1.</_>
        <_>
          7 7 3 3 3.</_></rects>
      <tilted>0</tilted></_>
    <_>
      <rects>
        <_>
          4 7 14 6 -1.</_>
        <_>
          11 7 7 6 2.</_></rects>
      <tilted>0</tilted></_>
    <_>
      <rects>
        <_>
          4 8 14 7 -1.</_>
        <_>
          11 8 7 7 2.</_></rects>
      <tilted>0</tilted></_>
    <_>
      <rects>
        <_>
          4 13 4 6 -1.</_>
        <_>
          4 13 2 3 2.</_>
        <_>
          6 16 2 3 2.</_></rects>
      <tilted>0</tilted></_>
    <_>
      <rects>
        <_>
          4 18 12 2 -1.</_>
        <_>
          4 18 6 1 2.</_>
        <_>
          10 19 6 1 2.</_></rects>
      <tilted>0</tilted></_>
    <_>
      <rects>
        <_>
          5 1 10 18 -1.</_>
        <_>
          5 1 5 9 2.</_>
        <_>
          10 10 5 9 2.</_></rects>
      <tilted>0</tilted></_>
    <_>
      <rects>
        <_>
          5 2 10 16 -1.</_>
        <_>
          5 10 10 8 2.</_></rects>
      <tilted>0</tilted></_>
    <_>
      <rects>
        <_>
          5 3 2 4 -1.</_>
        <_>
          5 3 1 2 2.</_>
        <_>
          6 5 1 2 2.</_></rects>
      <tilted>0</tilted></_>
    <_>
      <rects>
        <_>
          5 4 9 7 -1.</_>
        <_>
          8 4 3 7 3.</_></rects>
      <tilted>0</tilted></_>
    <_>
      <rects>
        <_>
          5 4 10 6 -1.</_>
        <_>
          5 4 5 3 2.</_>
        <_>
          10 7 5 3 2.</_></rects>
      <tilted>0</tilted></_>
    <_>
      <rects>
        <_>
          5 4 10 4 -1.</_>
        <_>
          5 6 10 2 2.</_></rects>
      <tilted>0</tilted></_>
    <_>
      <rects>
        <_>
          5 5 10 4 -1.</_>
        <_>
          5 5 5 2 2.</_>
        <_>
          10 7 5 2 2.</_></rects>
      <tilted>0</tilted></_>
    <_>
      <rects>
        <_>
          5 7 6 10 -1.</_>
        <_>
          8 7 3 10 2.</_></rects>
      <tilted>0</tilted></_>
    <_>
      <rects>
        <_>
          5 17 10 2 -1.</_>
        <_>
          10 17 5 2 2.</_></rects>
      <tilted>0</tilted></_>
    <_>
      <rects>
        <_>
          5 17 15 2 -1.</_>
        <_>
          10 17 5 2 3.</_></rects>
      <tilted>0</tilted></_>
    <_>
      <rects>
        <_>
          6 1 8 3 -1.</_>
        <_>
          6 2 8 1 3.</_></rects>
      <tilted>0</tilted></_>
    <_>
      <rects>
        <_>
          6 2 9 9 -1.</_>
        <_>
          9 2 3 9 3.</_></rects>
      <tilted>0</tilted></_>
    <_>
      <rects>
        <_>
          6 2 9 3 -1.</_>
        <_>
          6 3 9 1 3.</_></rects>
      <tilted>0</tilted></_>
    <_>
      <rects>
        <_>
          6 3 8 6 -1.</_>
        <_>
          6 6 8 3 2.</_></rects>
      <tilted>0</tilted></_>
    <_>
      <rects>
        <_>
          6 13 2 4 -1.</_>
        <_>
          7 13 1 4 2.</_></rects>
      <tilted>0</tilted></_>
    <_>
      <rects>
        <_>
          6 14 9 4 -1.</_>
        <_>
          9 14 3 4 3.</_></rects>
      <tilted>0</tilted></_>
    <_>
      <rects>
        <_>
          6 16 9 2 -1.</_>
        <_>
          6 17 9 1 2.</_></rects>
      <tilted>0</tilted></_>
    <_>
      <rects>
        <_>
          6 17 8 3 -1.</_>
        <_>
          6 18 8 1 3.</_></rects>
      <tilted>0</tilted></_>
    <_>
      <rects>
        <_>
          7 1 7 3 -1.</_>
        <_>
          7 2 7 1 3.</_></rects>
      <tilted>0</tilted></_>
    <_>
      <rects>
        <_>
          7 2 10 4 -1.</_>
        <_>
          7 2 5 2 2.</_>
        <_>
          12 4 5 2 2.</_></rects>
      <tilted>0</tilted></_>
    <_>
      <rects>
        <_>
          7 2 12 2 -1.</_>
        <_>
          7 2 6 1 2.</_>
        <_>
          13 3 6 1 2.</_></rects>
      <tilted>0</tilted></_>
    <_>
      <rects>
        <_>
          7 3 6 2 -1.</_>
        <_>
          7 4 6 1 2.</_></rects>
      <tilted>0</tilted></_>
    <_>
      <rects>
        <_>
          7 3 8 12 -1.</_>
        <_>
          7 7 8 4 3.</_></rects>
      <tilted>0</tilted></_>
    <_>
      <rects>
        <_>
          7 4 6 1 -1.</_>
        <_>
          10 4 3 1 2.</_></rects>
      <tilted>0</tilted></_>
    <_>
      <rects>
        <_>
          7 4 6 3 -1.</_>
        <_>
          10 4 3 3 2.</_></rects>
      <tilted>0</tilted></_>
    <_>
      <rects>
        <_>
          7 9 6 4 -1.</_>
        <_>
          7 9 3 2 2.</_>
        <_>
          10 11 3 2 2.</_></rects>
      <tilted>0</tilted></_>
    <_>
      <rects>
        <_>
          7 13 3 4 -1.</_>
        <_>
          7 15 3 2 2.</_></rects>
      <tilted>0</tilted></_>
    <_>
      <rects>
        <_>
          7 13 7 4 -1.</_>
        <_>
          7 15 7 2 2.</_></rects>
      <tilted>0</tilted></_>
    <_>
      <rects>
        <_>
          7 14 3 2 -1.</_>
        <_>
          8 14 1 2 3.</_></rects>
      <tilted>0</tilted></_>
    <_>
      <rects>
        <_>
          7 14 3 4 -1.</_>
        <_>
          7 16 3 2 2.</_></rects>
      <tilted>0</tilted></_>
    <_>
      <rects>
        <_>
          7 15 6 2 -1.</_>
        <_>
          10 15 3 2 2.</_></rects>
      <tilted>0</tilted></_>
    <_>
      <rects>
        <_>
          7 15 7 2 -1.</_>
        <_>
          7 16 7 1 2.</_></rects>
      <tilted>0</tilted></_>
    <_>
      <rects>
        <_>
          7 16 6 3 -1.</_>
        <_>
          7 17 6 1 3.</_></rects>
      <tilted>0</tilted></_>
    <_>
      <rects>
        <_>
          8 2 10 2 -1.</_>
        <_>
          8 2 5 1 2.</_>
        <_>
          13 3 5 1 2.</_></rects>
      <tilted>0</tilted></_>
    <_>
      <rects>
        <_>
          8 3 2 2 -1.</_>
        <_>
          9 3 1 2 2.</_></rects>
      <tilted>0</tilted></_>
    <_>
      <rects>
        <_>
          8 3 10 11 -1.</_>
        <_>
          13 3 5 11 2.</_></rects>
      <tilted>0</tilted></_>
    <_>
      <rects>
        <_>
          8 3 6 9 -1.</_>
        <_>
          8 6 6 3 3.</_></rects>
      <tilted>0</tilted></_>
    <_>
      <rects>
        <_>
          8 6 6 2 -1.</_>
        <_>
          11 6 3 2 2.</_></rects>
      <tilted>0</tilted></_>
    <_>
      <rects>
        <_>
          8 6 6 3 -1.</_>
        <_>
          11 6 3 3 2.</_></rects>
      <tilted>0</tilted></_>
    <_>
      <rects>
        <_>
          8 6 9 6 -1.</_>
        <_>
          11 6 3 6 3.</_></rects>
      <tilted>0</tilted></_>
    <_>
      <rects>
        <_>
          8 8 9 3 -1.</_>
        <_>
          11 8 3 3 3.</_></rects>
      <tilted>0</tilted></_>
    <_>
      <rects>
        <_>
          8 14 4 3 -1.</_>
        <_>
          10 14 2 3 2.</_></rects>
      <tilted>0</tilted></_>
    <_>
      <rects>
        <_>
          8 16 4 4 -1.</_>
        <_>
          10 16 2 4 2.</_></rects>
      <tilted>0</tilted></_>
    <_>
      <rects>
        <_>
          9 2 10 2 -1.</_>
        <_>
          9 2 5 1 2.</_>
        <_>
          14 3 5 1 2.</_></rects>
      <tilted>0</tilted></_>
    <_>
      <rects>
        <_>
          9 3 3 2 -1.</_>
        <_>
          9 4 3 1 2.</_></rects>
      <tilted>0</tilted></_>
    <_>
      <rects>
        <_>
          9 4 3 1 -1.</_>
        <_>
          10 4 1 1 3.</_></rects>
      <tilted>0</tilted></_>
    <_>
      <rects>
        <_>
          9 5 4 6 -1.</_>
        <_>
          9 8 4 3 2.</_></rects>
      <tilted>0</tilted></_>
    <_>
      <rects>
        <_>
          9 6 8 6 -1.</_>
        <_>
          9 9 8 3 2.</_></rects>
      <tilted>0</tilted></_>
    <_>
      <rects>
        <_>
          9 8 1 10 -1.</_>
        <_>
          9 13 1 5 2.</_></rects>
      <tilted>0</tilted></_>
    <_>
      <rects>
        <_>
          10 3 4 12 -1.</_>
        <_>
          10 7 4 4 3.</_></rects>
      <tilted>0</tilted></_>
    <_>
      <rects>
        <_>
          10 4 3 1 -1.</_>
        <_>
          11 4 1 1 3.</_></rects>
      <tilted>0</tilted></_>
    <_>
      <rects>
        <_>
          10 6 4 6 -1.</_>
        <_>
          10 9 4 3 2.</_></rects>
      <tilted>0</tilted></_>
    <_>
      <rects>
        <_>
          10 16 6 2 -1.</_>
        <_>
          10 16 3 1 2.</_>
        <_>
          13 17 3 1 2.</_></rects>
      <tilted>0</tilted></_>
    <_>
      <rects>
        <_>
          11 2 4 15 -1.</_>
        <_>
          11 7 4 5 3.</_></rects>
      <tilted>0</tilted></_>
    <_>
      <rects>
        <_>
          11 3 2 6 -1.</_>
        <_>
          11 6 2 3 2.</_></rects>
      <tilted>0</tilted></_>
    <_>
      <rects>
        <_>
          11 3 2 15 -1.</_>
        <_>
          11 8 2 5 3.</_></rects>
      <tilted>0</tilted></_>
    <_>
      <rects>
        <_>
          11 3 4 15 -1.</_>
        <_>
          11 8 4 5 3.</_></rects>
      <tilted>0</tilted></_>
    <_>
      <rects>
        <_>
          11 4 6 7 -1.</_>
        <_>
          13 4 2 7 3.</_></rects>
      <tilted>0</tilted></_>
    <_>
      <rects>
        <_>
          11 6 6 6 -1.</_>
        <_>
          11 6 3 3 2.</_>
        <_>
          14 9 3 3 2.</_></rects>
      <tilted>0</tilted></_>
    <_>
      <rects>
        <_>
          11 6 6 6 -1.</_>
        <_>
          14 6 3 6 2.</_></rects>
      <tilted>0</tilted></_>
    <_>
      <rects>
        <_>
          11 6 6 8 -1.</_>
        <_>
          11 10 6 4 2.</_></rects>
      <tilted>0</tilted></_>
    <_>
      <rects>
        <_>
          12 3 1 8 -1.</_>
        <_>
          12 7 1 4 2.</_></rects>
      <tilted>0</tilted></_>
    <_>
      <rects>
        <_>
          12 3 4 4 -1.</_>
        <_>
          12 3 2 2 2.</_>
        <_>
          14 5 2 2 2.</_></rects>
      <tilted>0</tilted></_>
    <_>
      <rects>
        <_>
          12 3 2 15 -1.</_>
        <_>
          12 8 2 5 3.</_></rects>
      <tilted>0</tilted></_>
    <_>
      <rects>
        <_>
          12 3 6 14 -1.</_>
        <_>
          12 10 6 7 2.</_></rects>
      <tilted>0</tilted></_>
    <_>
      <rects>
        <_>
          12 4 3 5 -1.</_>
        <_>
          13 4 1 5 3.</_></rects>
      <tilted>0</tilted></_>
    <_>
      <rects>
        <_>
          12 4 5 9 -1.</_>
        <_>
          12 7 5 3 3.</_></rects>
      <tilted>0</tilted></_>
    <_>
      <rects>
        <_>
          12 5 3 4 -1.</_>
        <_>
          13 5 1 4 3.</_></rects>
      <tilted>0</tilted></_>
    <_>
      <rects>
        <_>
          12 6 5 8 -1.</_>
        <_>
          12 10 5 4 2.</_></rects>
      <tilted>0</tilted></_>
    <_>
      <rects>
        <_>
          12 9 1 2 -1.</_>
        <_>
          12 10 1 1 2.</_></rects>
      <tilted>0</tilted></_>
    <_>
      <rects>
        <_>
          13 2 4 4 -1.</_>
        <_>
          13 2 2 2 2.</_>
        <_>
          15 4 2 2 2.</_></rects>
      <tilted>0</tilted></_>
    <_>
      <rects>
        <_>
          13 2 6 14 -1.</_>
        <_>
          13 2 3 7 2.</_>
        <_>
          16 9 3 7 2.</_></rects>
      <tilted>0</tilted></_>
    <_>
      <rects>
        <_>
          13 5 6 10 -1.</_>
        <_>
          15 5 2 10 3.</_></rects>
      <tilted>0</tilted></_>
    <_>
      <rects>
        <_>
          13 5 6 14 -1.</_>
        <_>
          13 5 3 7 2.</_>
        <_>
          16 12 3 7 2.</_></rects>
      <tilted>0</tilted></_>
    <_>
      <rects>
        <_>
          13 5 4 10 -1.</_>
        <_>
          13 10 4 5 2.</_></rects>
      <tilted>0</tilted></_>
    <_>
      <rects>
        <_>
          13 7 4 7 -1.</_>
        <_>
          15 7 2 7 2.</_></rects>
      <tilted>0</tilted></_>
    <_>
      <rects>
        <_>
          14 1 1 18 -1.</_>
        <_>
          14 7 1 6 3.</_></rects>
      <tilted>0</tilted></_>
    <_>
      <rects>
        <_>
          14 3 4 4 -1.</_>
        <_>
          14 3 2 2 2.</_>
        <_>
          16 5 2 2 2.</_></rects>
      <tilted>0</tilted></_>
    <_>
      <rects>
        <_>
          14 3 6 14 -1.</_>
        <_>
          14 3 3 7 2.</_>
        <_>
          17 10 3 7 2.</_></rects>
      <tilted>0</tilted></_>
    <_>
      <rects>
        <_>
          14 14 4 4 -1.</_>
        <_>
          14 14 2 2 2.</_>
        <_>
          16 16 2 2 2.</_></rects>
      <tilted>0</tilted></_>
    <_>
      <rects>
        <_>
          14 15 2 2 -1.</_>
        <_>
          14 15 1 1 2.</_>
        <_>
          15 16 1 1 2.</_></rects>
      <tilted>0</tilted></_>
    <_>
      <rects>
        <_>
          15 3 4 6 -1.</_>
        <_>
          17 3 2 6 2.</_></rects>
      <tilted>0</tilted></_>
    <_>
      <rects>
        <_>
          15 3 4 12 -1.</_>
        <_>
          15 3 2 6 2.</_>
        <_>
          17 9 2 6 2.</_></rects>
      <tilted>0</tilted></_>
    <_>
      <rects>
        <_>
          15 7 1 8 -1.</_>
        <_>
          15 11 1 4 2.</_></rects>
      <tilted>0</tilted></_>
    <_>
      <rects>
        <_>
          15 7 4 10 -1.</_>
        <_>
          15 7 2 5 2.</_>
        <_>
          17 12 2 5 2.</_></rects>
      <tilted>0</tilted></_>
    <_>
      <rects>
        <_>
          17 6 3 9 -1.</_>
        <_>
          18 6 1 9 3.</_></rects>
      <tilted>0</tilted></_>
    <_>
      <rects>
        <_>
          18 4 1 10 -1.</_>
        <_>
          18 9 1 5 2.</_></rects>
      <tilted>0</tilted></_>
    <_>
      <rects>
        <_>
          18 6 2 8 -1.</_>
        <_>
          19 6 1 8 2.</_></rects>
      <tilted>0</tilted></_></features></cascade>
</opencv_storage>
