<?xml version="1.0"?>
<opencv_storage>
<stage5>
  <maxWeakCount>10</maxWeakCount>
  <stageThreshold>-6.4237630367279053e-01</stageThreshold>
  <weakClassifiers>
    <_>
      <internalNodes>
        0 -1 44712 -2.7957947924733162e-02</internalNodes>
      <leafValues>
        -7.5396823883056641e-01 4.1163140535354614e-01</leafValues></_>
    <_>
      <internalNodes>
        0 -1 70210 1.6984136775135994e-02</internalNodes>
      <leafValues>
        -1.6642458736896515e-01 6.0445576906204224e-01</leafValues></_>
    <_>
      <internalNodes>
        0 -1 70210 -1.4243787154555321e-02</internalNodes>
      <leafValues>
        5.7557064294815063e-01 -3.8244572281837463e-01</leafValues></_>
    <_>
      <internalNodes>
        0 -1 2771 -1.6464564949274063e-02</internalNodes>
      <leafValues>
        6.6668808460235596e-01 -1.5265306830406189e-01</leafValues></_>
    <_>
      <internalNodes>
        0 -1 45080 1.9391477108001709e-02</internalNodes>
      <leafValues>
        -1.5141308307647705e-01 6.9412064552307129e-01</leafValues></_>
    <_>
      <internalNodes>
        0 -1 36863 1.0435475036501884e-02</internalNodes>
      <leafValues>
        1.6316406428813934e-01 -8.4422415494918823e-01</leafValues></_>
    <_>
      <internalNodes>
        0 -1 16161 1.9270371645689011e-02</internalNodes>
      <leafValues>
        -2.2177049517631531e-01 6.0442852973937988e-01</leafValues></_>
    <_>
      <internalNodes>
        0 -1 16165 2.6951190084218979e-02</internalNodes>
      <leafValues>
        -2.4977414309978485e-01 7.5049763917922974e-01</leafValues></_>
    <_>
      <internalNodes>
        0 -1 49827 1.4575943350791931e-02</internalNodes>
      <leafValues>
        -1.7560961842536926e-01 6.7182755470275879e-01</leafValues></_>
    <_>
      <internalNodes>
        0 -1 45007 -1.7346570268273354e-02</internalNodes>
      <leafValues>
        7.9788345098495483e-01 -1.4170290529727936e-01</leafValues></_></weakClassifiers></stage5>
</opencv_storage>
