<?xml version="1.0"?>
<opencv_storage>
<stage0>
  <maxWeakCount>5</maxWeakCount>
  <stageThreshold>-1.1355292052030563e-01</stageThreshold>
  <weakClassifiers>
    <_>
      <internalNodes>
        0 -1 30943 -2.5050174444913864e-02</internalNodes>
      <leafValues>
        -9.3460488319396973e-01 4.9072247743606567e-01</leafValues></_>
    <_>
      <internalNodes>
        0 -1 30894 1.5384363010525703e-02</internalNodes>
      <leafValues>
        2.8966486454010010e-01 -9.1125732660293579e-01</leafValues></_>
    <_>
      <internalNodes>
        0 -1 24796 -3.8943901658058167e-02</internalNodes>
      <leafValues>
        -9.7768843173980713e-01 1.3262835144996643e-01</leafValues></_>
    <_>
      <internalNodes>
        0 -1 24326 3.7143073976039886e-02</internalNodes>
      <leafValues>
        2.5516527891159058e-01 -9.1538202762603760e-01</leafValues></_>
    <_>
      <internalNodes>
        0 -1 31841 3.2734401524066925e-02</internalNodes>
      <leafValues>
        1.4359349012374878e-01 -8.8030016422271729e-01</leafValues></_></weakClassifiers></stage0>
</opencv_storage>
