<?xml version="1.0"?>
<opencv_storage>
<stage6>
  <maxWeakCount>11</maxWeakCount>
  <stageThreshold>-7.1243476867675781e-01</stageThreshold>
  <weakClassifiers>
    <_>
      <internalNodes>
        0 -1 36441 -1.9067991524934769e-02</internalNodes>
      <leafValues>
        -8.0821919441223145e-01 4.3558281660079956e-01</leafValues></_>
    <_>
      <internalNodes>
        0 -1 66642 -2.2806894034147263e-02</internalNodes>
      <leafValues>
        5.6382113695144653e-01 -1.6084352135658264e-01</leafValues></_>
    <_>
      <internalNodes>
        0 -1 41660 2.5676578283309937e-02</internalNodes>
      <leafValues>
        -3.4647116065025330e-01 5.1151049137115479e-01</leafValues></_>
    <_>
      <internalNodes>
        0 -1 51085 -1.6033936291933060e-02</internalNodes>
      <leafValues>
        7.2625410556793213e-01 -1.6410702466964722e-01</leafValues></_>
    <_>
      <internalNodes>
        0 -1 73338 -1.5810769051313400e-02</internalNodes>
      <leafValues>
        7.1690028905868530e-01 -1.6063854098320007e-01</leafValues></_>
    <_>
      <internalNodes>
        0 -1 36582 -1.4728311449289322e-02</internalNodes>
      <leafValues>
        4.9358439445495605e-01 -2.5589513778686523e-01</leafValues></_>
    <_>
      <internalNodes>
        0 -1 52448 2.3579156026244164e-02</internalNodes>
      <leafValues>
        -3.0664366483688354e-01 5.0808835029602051e-01</leafValues></_>
    <_>
      <internalNodes>
        0 -1 77200 -2.0017415285110474e-02</internalNodes>
      <leafValues>
        6.9839060306549072e-01 -1.5261039137840271e-01</leafValues></_>
    <_>
      <internalNodes>
        0 -1 26250 -1.5175236389040947e-02</internalNodes>
      <leafValues>
        -8.4206300973892212e-01 1.8027932941913605e-01</leafValues></_>
    <_>
      <internalNodes>
        0 -1 78010 -1.2605009600520134e-02</internalNodes>
      <leafValues>
        5.9136748313903809e-01 -2.5712993741035461e-01</leafValues></_>
    <_>
      <internalNodes>
        0 -1 39766 -5.3021125495433807e-02</internalNodes>
      <leafValues>
        7.1820092201232910e-01 -1.7432893812656403e-01</leafValues></_></weakClassifiers></stage6>
</opencv_storage>
