<?xml version="1.0"?>
<opencv_storage>
<stage7>
  <maxWeakCount>12</maxWeakCount>
  <stageThreshold>-5.7894510030746460e-01</stageThreshold>
  <weakClassifiers>
    <_>
      <internalNodes>
        0 -1 36352 2.4136375635862350e-02</internalNodes>
      <leafValues>
        4.4160866737365723e-01 -7.7070063352584839e-01</leafValues></_>
    <_>
      <internalNodes>
        0 -1 74533 3.1010922044515610e-02</internalNodes>
      <leafValues>
        -1.4902776479721069e-01 6.9422543048858643e-01</leafValues></_>
    <_>
      <internalNodes>
        0 -1 69915 -4.1647117584943771e-02</internalNodes>
      <leafValues>
        5.3246182203292847e-01 -2.3604837059974670e-01</leafValues></_>
    <_>
      <internalNodes>
        0 -1 56045 -2.0082951523363590e-03</internalNodes>
      <leafValues>
        -9.1648364067077637e-01 1.6306205093860626e-01</leafValues></_>
    <_>
      <internalNodes>
        0 -1 56045 1.7611335497349501e-03</internalNodes>
      <leafValues>
        8.3334468305110931e-02 -8.7066149711608887e-01</leafValues></_>
    <_>
      <internalNodes>
        0 -1 46301 -2.6995625346899033e-02</internalNodes>
      <leafValues>
        6.1951363086700439e-01 -2.0474801957607269e-01</leafValues></_>
    <_>
      <internalNodes>
        0 -1 53022 -1.2764720246195793e-02</internalNodes>
      <leafValues>
        4.9886715412139893e-01 -2.9731792211532593e-01</leafValues></_>
    <_>
      <internalNodes>
        0 -1 51507 5.8581028133630753e-02</internalNodes>
      <leafValues>
        2.0866076648235321e-01 -8.5085797309875488e-01</leafValues></_>
    <_>
      <internalNodes>
        0 -1 69244 1.4097769744694233e-02</internalNodes>
      <leafValues>
        -2.7927264571189880e-01 6.6645675897598267e-01</leafValues></_>
    <_>
      <internalNodes>
        0 -1 15774 5.8933813124895096e-02</internalNodes>
      <leafValues>
        -1.9728916883468628e-01 7.1114689111709595e-01</leafValues></_>
    <_>
      <internalNodes>
        0 -1 66628 1.2622565031051636e-02</internalNodes>
      <leafValues>
        -1.8171618878841400e-01 6.3686501979827881e-01</leafValues></_>
    <_>
      <internalNodes>
        0 -1 49417 -9.2080403119325638e-03</internalNodes>
      <leafValues>
        5.6859940290451050e-01 -2.0937441289424896e-01</leafValues></_></weakClassifiers></stage7>
</opencv_storage>
