<?xml version="1.0"?>
<opencv_storage>
<stage11>
  <maxWeakCount>11</maxWeakCount>
  <stageThreshold>-5.5374056100845337e-01</stageThreshold>
  <weakClassifiers>
    <_>
      <internalNodes>
        0 -1 67051 7.1116397157311440e-03</internalNodes>
      <leafValues>
        3.9940828084945679e-01 -9.1836732625961304e-01</leafValues></_>
    <_>
      <internalNodes>
        0 -1 77906 -1.9520815461874008e-02</internalNodes>
      <leafValues>
        6.3397610187530518e-01 -1.3378416001796722e-01</leafValues></_>
    <_>
      <internalNodes>
        0 -1 69321 4.4720821082592010e-02</internalNodes>
      <leafValues>
        -2.2627519071102142e-01 6.4337033033370972e-01</leafValues></_>
    <_>
      <internalNodes>
        0 -1 27818 -9.1552995145320892e-03</internalNodes>
      <leafValues>
        6.9759112596511841e-01 -1.4599151909351349e-01</leafValues></_>
    <_>
      <internalNodes>
        0 -1 7369 1.2664001435041428e-02</internalNodes>
      <leafValues>
        -2.4138920009136200e-01 6.2902140617370605e-01</leafValues></_>
    <_>
      <internalNodes>
        0 -1 66824 -5.1897400990128517e-03</internalNodes>
      <leafValues>
        -6.6965925693511963e-01 2.2011625766754150e-01</leafValues></_>
    <_>
      <internalNodes>
        0 -1 73382 2.1430272608995438e-03</internalNodes>
      <leafValues>
        -2.5846987962722778e-01 5.3975975513458252e-01</leafValues></_>
    <_>
      <internalNodes>
        0 -1 73382 -2.1048407070338726e-03</internalNodes>
      <leafValues>
        6.0000991821289062e-01 -1.6446074843406677e-01</leafValues></_>
    <_>
      <internalNodes>
        0 -1 33461 -2.0077554509043694e-02</internalNodes>
      <leafValues>
        7.0969653129577637e-01 -1.4840456843376160e-01</leafValues></_>
    <_>
      <internalNodes>
        0 -1 64216 1.7840191721916199e-02</internalNodes>
      <leafValues>
        -2.7029925584793091e-01 5.0330549478530884e-01</leafValues></_>
    <_>
      <internalNodes>
        0 -1 66580 4.8181521706283092e-03</internalNodes>
      <leafValues>
        -2.6624941825866699e-01 5.5893224477767944e-01</leafValues></_></weakClassifiers></stage11>
</opencv_storage>
