<?xml version="1.0"?>
<opencv_storage>
<stage9>
  <maxWeakCount>14</maxWeakCount>
  <stageThreshold>-6.3113611936569214e-01</stageThreshold>
  <weakClassifiers>
    <_>
      <internalNodes>
        0 -1 56510 1.0754286311566830e-02</internalNodes>
      <leafValues>
        4.2475172877311707e-01 -7.5177305936813354e-01</leafValues></_>
    <_>
      <internalNodes>
        0 -1 63408 2.3866523057222366e-02</internalNodes>
      <leafValues>
        -1.5302066504955292e-01 6.4214837551116943e-01</leafValues></_>
    <_>
      <internalNodes>
        0 -1 55835 -5.1058796234428883e-03</internalNodes>
      <leafValues>
        5.3594923019409180e-01 -2.8077861666679382e-01</leafValues></_>
    <_>
      <internalNodes>
        0 -1 30466 -1.4981977641582489e-02</internalNodes>
      <leafValues>
        -7.8828912973403931e-01 1.5546157956123352e-01</leafValues></_>
    <_>
      <internalNodes>
        0 -1 13652 1.9251890480518341e-02</internalNodes>
      <leafValues>
        -2.1444602310657501e-01 5.7954657077789307e-01</leafValues></_>
    <_>
      <internalNodes>
        0 -1 18390 -3.0385076999664307e-02</internalNodes>
      <leafValues>
        6.1727935075759888e-01 -2.9191571474075317e-01</leafValues></_>
    <_>
      <internalNodes>
        0 -1 66987 2.6498634368181229e-02</internalNodes>
      <leafValues>
        2.1629992127418518e-01 -7.4954903125762939e-01</leafValues></_>
    <_>
      <internalNodes>
        0 -1 23006 -1.7325632274150848e-02</internalNodes>
      <leafValues>
        7.4381488561630249e-01 -1.7968757450580597e-01</leafValues></_>
    <_>
      <internalNodes>
        0 -1 73338 1.5171142295002937e-02</internalNodes>
      <leafValues>
        -1.4029677212238312e-01 6.8454527854919434e-01</leafValues></_>
    <_>
      <internalNodes>
        0 -1 39765 -3.5883460193872452e-02</internalNodes>
      <leafValues>
        7.3265057802200317e-01 -1.5209525823593140e-01</leafValues></_>
    <_>
      <internalNodes>
        0 -1 28990 1.1265823245048523e-01</internalNodes>
      <leafValues>
        -1.4322039484977722e-01 7.0710086822509766e-01</leafValues></_>
    <_>
      <internalNodes>
        0 -1 27498 1.5140574425458908e-02</internalNodes>
      <leafValues>
        -1.4745466411113739e-01 7.1137607097625732e-01</leafValues></_>
    <_>
      <internalNodes>
        0 -1 23562 1.4003895223140717e-02</internalNodes>
      <leafValues>
        -1.4940881729125977e-01 7.0814466476440430e-01</leafValues></_>
    <_>
      <internalNodes>
        0 -1 25783 5.0154915079474449e-03</internalNodes>
      <leafValues>
        -2.6219838857650757e-01 5.3313231468200684e-01</leafValues></_></weakClassifiers></stage9>
</opencv_storage>
