<?xml version="1.0"?>
<opencv_storage>
<stage4>
  <maxWeakCount>8</maxWeakCount>
  <stageThreshold>-5.0824266672134399e-01</stageThreshold>
  <weakClassifiers>
    <_>
      <internalNodes>
        0 -1 46986 8.3890464156866074e-03</internalNodes>
      <leafValues>
        4.4039863348007202e-01 -8.5567009449005127e-01</leafValues></_>
    <_>
      <internalNodes>
        0 -1 26943 -3.5530082881450653e-02</internalNodes>
      <leafValues>
        -8.8563340902328491e-01 2.0642888545989990e-01</leafValues></_>
    <_>
      <internalNodes>
        0 -1 64287 1.4128904789686203e-02</internalNodes>
      <leafValues>
        1.1084585636854172e-01 -8.0551314353942871e-01</leafValues></_>
    <_>
      <internalNodes>
        0 -1 40747 -2.0774327218532562e-02</internalNodes>
      <leafValues>
        6.8052923679351807e-01 -2.0359969139099121e-01</leafValues></_>
    <_>
      <internalNodes>
        0 -1 55595 1.3349379412829876e-02</internalNodes>
      <leafValues>
        -2.1495802700519562e-01 7.0080924034118652e-01</leafValues></_>
    <_>
      <internalNodes>
        0 -1 54220 7.8292712569236755e-03</internalNodes>
      <leafValues>
        1.6671742498874664e-01 -8.6028778553009033e-01</leafValues></_>
    <_>
      <internalNodes>
        0 -1 29817 -8.5324179381132126e-03</internalNodes>
      <leafValues>
        5.9240388870239258e-01 -2.1772336959838867e-01</leafValues></_>
    <_>
      <internalNodes>
        0 -1 2769 1.5252558514475822e-02</internalNodes>
      <leafValues>
        -3.1041094660758972e-01 6.0421824455261230e-01</leafValues></_></weakClassifiers></stage4>
</opencv_storage>
